~o
<STREAMINFO> 1 39
<VECSIZE> 39<NULLD><MFCC><DIAGC>
~h "P0"
<BEGINHMM>
<NUMSTATES> 5
<STATE> 2
<MEAN> 39
 5.743948e-02 -6.869080e-01 -1.863033e-01 1.201460e-01 -3.852395e-02 2.704438e-01 4.215037e-01 -1.807957e-01 -2.102711e-01 1.145914e-01 1.174597e-01 7.972530e-02 4.017561e-01 6.363990e-02 -5.357589e-01 -9.010024e-02 -4.125173e-02 -6.873631e-02 2.724595e-02 8.726618e-02 -1.973462e-01 -1.191274e-01 4.908111e-03 3.061556e-02 -2.893962e-02 5.681044e-01 4.685485e-02 1.262439e-01 3.023474e-03 -7.267145e-02 -2.149168e-02 -8.673112e-02 -1.127721e-01 1.348037e-02 3.408749e-02 -4.736177e-02 -4.135224e-02 -2.480443e-02 1.820692e-02
<VARIANCE> 39
 4.796436e-01 5.315711e-01 5.825565e-01 6.205792e-01 5.500296e-01 5.642128e-01 5.711746e-01 6.986249e-01 6.896267e-01 6.458157e-01 6.037396e-01 5.800007e-01 7.807953e-01 4.633496e-01 7.480931e-01 5.693341e-01 5.790628e-01 4.544705e-01 5.139941e-01 5.104323e-01 5.499114e-01 5.123320e-01 5.040421e-01 4.859993e-01 4.626128e-01 9.982581e-01 3.283869e-01 5.922803e-01 3.732042e-01 3.665146e-01 3.033887e-01 3.531190e-01 3.406505e-01 3.921622e-01 3.688715e-01 3.650073e-01 3.647193e-01 3.538993e-01 8.731273e-01
<GCONST> 4.529533e+01
<STATE> 3
<MEAN> 39
 1.362182e-01 -9.552661e-01 -2.117987e-01 4.314592e-02 -1.312072e-01 2.247212e-01 3.584352e-01 -3.397107e-01 -2.797833e-01 4.999162e-02 7.446899e-02 -2.163787e-03 7.625307e-01 9.822682e-02 -1.269799e-01 -1.045248e-02 -1.261858e-01 -8.879580e-02 -4.860922e-02 -7.880209e-02 -6.724836e-02 -7.064050e-03 -7.227682e-02 -5.920995e-02 -5.144452e-02 2.682550e-01 9.572522e-03 2.674459e-01 4.186413e-02 -3.047259e-02 6.516588e-03 -2.097556e-02 -6.979614e-02 7.733580e-02 5.735057e-02 -2.699046e-02 -3.385342e-02 1.124384e-03 -2.634239e-01
<VARIANCE> 39
 5.244200e-01 3.903636e-01 6.073547e-01 5.912829e-01 5.704578e-01 5.872884e-01 6.518471e-01 6.650807e-01 6.701058e-01 6.551802e-01 5.907099e-01 5.964239e-01 5.820485e-01 3.564260e-01 6.035907e-01 4.262395e-01 4.239959e-01 3.521625e-01 3.772469e-01 3.800304e-01 4.222560e-01 3.954761e-01 3.992243e-01 3.761952e-01 3.781346e-01 8.644080e-01 2.688983e-01 3.898018e-01 2.906883e-01 2.784173e-01 2.490806e-01 2.762114e-01 2.701618e-01 2.911891e-01 2.857067e-01 2.890890e-01 2.807605e-01 2.848517e-01 5.551404e-01
<GCONST> 3.809568e+01
<STATE> 4
<MEAN> 39
 2.229716e-01 -8.652143e-01 -1.540694e-01 -7.904766e-02 -2.102259e-01 1.703328e-01 1.956511e-01 -3.287727e-01 -2.347717e-01 -5.015580e-02 -2.662927e-02 -5.802830e-02 7.726581e-01 6.228619e-02 2.512539e-01 7.669782e-02 -1.115701e-01 -3.873086e-02 -4.531345e-02 -1.471033e-01 5.728498e-02 7.266156e-02 -7.011300e-02 -7.627783e-02 -2.590896e-02 -1.724788e-01 -3.684027e-02 2.231668e-01 3.318517e-02 1.548660e-02 4.007911e-02 -5.809003e-03 -2.429068e-02 6.481358e-02 3.815214e-02 1.119967e-02 3.334874e-03 1.363398e-02 -2.741645e-01
<VARIANCE> 39
 5.615753e-01 4.509756e-01 6.347463e-01 6.234683e-01 6.167605e-01 6.250748e-01 7.256289e-01 6.449524e-01 6.401898e-01 6.403531e-01 5.758373e-01 5.990676e-01 5.328148e-01 3.911064e-01 5.418368e-01 4.323684e-01 4.374500e-01 3.800013e-01 3.801999e-01 3.713488e-01 3.974884e-01 3.897737e-01 3.882781e-01 3.606607e-01 3.809209e-01 7.624145e-01 2.912654e-01 3.710331e-01 2.985817e-01 2.943848e-01 2.770063e-01 2.906586e-01 2.837567e-01 2.843764e-01 2.844996e-01 2.865241e-01 2.728385e-01 2.858315e-01 4.411460e-01
<GCONST> 3.830012e+01
<TRANSP> 5
 0.000000e+00 1.000000e+00 0.000000e+00 0.000000e+00 0.000000e+00
 0.000000e+00 7.980778e-01 2.019222e-01 0.000000e+00 0.000000e+00
 0.000000e+00 0.000000e+00 7.767655e-01 2.232345e-01 0.000000e+00
 0.000000e+00 0.000000e+00 0.000000e+00 7.399681e-01 2.600319e-01
 0.000000e+00 0.000000e+00 0.000000e+00 0.000000e+00 0.000000e+00
<ENDHMM>
~h "P1"
<BEGINHMM>
<NUMSTATES> 5
<STATE> 2
<MEAN> 39
 -1.358968e-01 2.918472e-01 4.270651e-01 4.831798e-01 1.500473e-01 3.255794e-01 2.242379e-02 2.605470e-01 -1.134477e-01 1.535621e-01 8.244636e-03 1.274970e-01 -8.634838e-01 -1.240662e-01 -3.906965e-01 -1.016870e-01 -3.951840e-02 1.529364e-01 8.683773e-02 1.411190e-01 3.454487e-02 8.815856e-02 6.870582e-02 1.061789e-01 5.597630e-02 3.272757e-01 2.479641e-01 -3.351809e-01 -3.200560e-01 -3.199041e-01 -1.068875e-01 -2.510679e-01 -4.471881e-02 -1.457598e-01 1.308323e-02 -3.833765e-02 -1.468643e-03 -3.380180e-02 7.470315e-01
<VARIANCE> 39
 5.285913e-01 4.904383e-01 4.436165e-01 4.284522e-01 4.360116e-01 4.790019e-01 4.398787e-01 4.165724e-01 4.285917e-01 4.127658e-01 3.966782e-01 3.787206e-01 6.148174e-01 6.388670e-01 7.736923e-01 6.222672e-01 6.411714e-01 4.429852e-01 5.830441e-01 4.579457e-01 4.716702e-01 4.428312e-01 4.035575e-01 3.929921e-01 3.816707e-01 1.228832e+00 5.500619e-01 7.176492e-01 5.197338e-01 5.009460e-01 3.717823e-01 4.523525e-01 4.104201e-01 4.133137e-01 3.986211e-01 3.659104e-01 3.613365e-01 3.504867e-01 9.011711e-01
<GCONST> 4.343921e+01
<STATE> 3
<MEAN> 39
 -1.059035e-01 -8.931260e-02 1.913155e-01 3.254002e-01 2.114386e-01 2.434352e-01 1.014029e-01 1.873939e-01 -5.928693e-02 1.806380e-01 9.232840e-02 1.497419e-01 -3.656863e-01 1.526004e-01 -6.189502e-01 -4.137142e-01 -3.187150e-01 1.021930e-02 -2.292904e-01 2.681506e-02 -1.846704e-01 4.571463e-02 -5.081553e-03 7.478075e-02 -5.007565e-03 9.905865e-01 1.615015e-01 2.831110e-03 -1.537788e-01 -1.132245e-01 -8.867581e-02 -1.759460e-01 -1.069606e-01 -1.313093e-01 -3.095192e-02 -6.342927e-02 -5.211775e-02 -6.240740e-02 3.019142e-01
<VARIANCE> 39
 5.487229e-01 7.038982e-01 6.389703e-01 5.400140e-01 4.354011e-01 5.243657e-01 4.493570e-01 4.802736e-01 4.806126e-01 4.470831e-01 4.276808e-01 4.064217e-01 1.038828e+00 7.737748e-01 1.056460e+00 7.873036e-01 7.450488e-01 5.039232e-01 6.390318e-01 5.270578e-01 5.656425e-01 5.368010e-01 4.802017e-01 4.769093e-01 4.462487e-01 1.222144e+00 6.462401e-01 8.837544e-01 6.914402e-01 6.060281e-01 3.759650e-01 4.850647e-01 4.051651e-01 4.492631e-01 4.126138e-01 3.875688e-01 3.854608e-01 3.674446e-01 1.348058e+00
<GCONST> 4.929714e+01
<STATE> 4
<MEAN> 39
 5.493209e-02 -4.722958e-01 -1.811403e-01 6.738403e-02 1.747931e-01 -2.811594e-02 7.039204e-02 -4.980510e-02 -5.806741e-02 1.373967e-01 1.304104e-01 1.048108e-01 3.736155e-01 2.007196e-01 -3.834864e-01 -3.838033e-01 -2.801250e-01 -7.106636e-02 -2.959797e-01 -8.284069e-02 -2.580831e-01 1.829544e-02 -6.846188e-02 -2.840991e-03 -8.133097e-02 8.784729e-01 -1.930044e-02 3.042515e-01 1.221257e-01 1.001793e-01 -3.215759e-02 4.882625e-02 -5.672138e-02 2.863806e-02 -4.026235e-03 -3.415376e-02 -5.969586e-02 -4.263498e-02 -3.673744e-01
<VARIANCE> 39
 5.948276e-01 8.435969e-01 7.716596e-01 6.705567e-01 5.242784e-01 6.021691e-01 5.334257e-01 5.827834e-01 6.107332e-01 5.409766e-01 5.304851e-01 5.053486e-01 9.698647e-01 6.945742e-01 1.010158e+00 7.806283e-01 6.873689e-01 4.797197e-01 5.465074e-01 4.891372e-01 5.225382e-01 5.146046e-01 5.026509e-01 5.031053e-01 4.695856e-01 1.002007e+00 5.656034e-01 6.866760e-01 6.388007e-01 5.204092e-01 3.525031e-01 4.418053e-01 3.756669e-01 4.266817e-01 3.905094e-01 3.742282e-01 3.752353e-01 3.613034e-01 1.006830e+00
<GCONST> 4.942799e+01
<TRANSP> 5
 0.000000e+00 1.000000e+00 0.000000e+00 0.000000e+00 0.000000e+00
 0.000000e+00 6.580036e-01 3.419965e-01 0.000000e+00 0.000000e+00
 0.000000e+00 0.000000e+00 6.524064e-01 3.475936e-01 0.000000e+00
 0.000000e+00 0.000000e+00 0.000000e+00 6.692336e-01 3.307664e-01
 0.000000e+00 0.000000e+00 0.000000e+00 0.000000e+00 0.000000e+00
<ENDHMM>
~h "P2"
<BEGINHMM>
<NUMSTATES> 5
<STATE> 2
<MEAN> 39
 -5.207354e-01 -1.993132e-01 3.268478e-01 2.130304e-01 2.955126e-01 1.343562e-01 1.078409e-01 7.750662e-02 1.337300e-01 1.273610e-01 1.076812e-01 8.703129e-02 -1.526990e-01 7.155685e-04 -3.390203e-01 -3.046751e-01 -2.721103e-01 4.700886e-02 -2.706341e-01 -4.114097e-02 -2.113394e-01 9.583683e-02 -8.009986e-02 2.195611e-02 -4.420834e-02 7.567650e-01 2.701466e-01 1.385575e-01 -2.049738e-01 -6.818330e-02 -1.104704e-01 -1.019308e-01 -7.211541e-02 -4.707598e-02 -5.423749e-02 -4.036014e-02 -3.604111e-02 -2.991778e-02 7.972419e-02
<VARIANCE> 39
 7.046053e-01 5.856357e-01 5.478184e-01 5.092098e-01 4.984010e-01 4.791125e-01 4.466641e-01 4.460348e-01 4.380569e-01 4.256688e-01 4.302700e-01 4.217784e-01 6.446497e-01 1.008594e+00 8.779879e-01 7.321874e-01 6.659563e-01 5.679406e-01 5.467739e-01 4.691278e-01 4.547715e-01 4.429679e-01 4.415159e-01 4.418373e-01 4.348630e-01 8.982670e-01 7.556586e-01 6.865062e-01 5.762672e-01 5.750743e-01 4.708856e-01 4.724804e-01 3.926777e-01 3.994143e-01 3.821955e-01 3.827813e-01 3.767974e-01 3.820601e-01 9.672055e-01
<GCONST> 4.669208e+01
<STATE> 3
<MEAN> 39
 -2.656593e-01 -3.227220e-01 -8.801734e-02 -5.819670e-02 2.269047e-01 -1.734876e-01 -2.034866e-03 -1.602070e-01 1.704023e-01 1.186241e-02 9.436257e-02 5.470079e-03 3.829737e-01 3.335799e-01 -3.761900e-03 -4.402767e-01 -2.864279e-01 -1.047962e-01 -2.422422e-01 -8.992400e-02 -1.580389e-01 1.457707e-03 -9.929836e-02 -3.403980e-02 -8.771343e-02 5.156518e-01 1.089228e-01 1.648819e-01 1.332256e-02 1.639418e-02 -6.223886e-02 6.737957e-02 -9.042313e-04 6.367762e-02 -4.396342e-02 -1.784209e-03 -2.861411e-02 -1.634432e-02 -1.995740e-01
<VARIANCE> 39
 8.547061e-01 7.175165e-01 7.398160e-01 6.027539e-01 5.567933e-01 5.015909e-01 5.082985e-01 4.664147e-01 4.760878e-01 4.975387e-01 5.163808e-01 5.166464e-01 5.468089e-01 7.889400e-01 7.169037e-01 6.019158e-01 5.152192e-01 5.019370e-01 4.530969e-01 4.198194e-01 4.019674e-01 4.106336e-01 4.259648e-01 4.425494e-01 4.487875e-01 6.261604e-01 7.037660e-01 5.106945e-01 5.122623e-01 4.422261e-01 4.124951e-01 3.745477e-01 3.517254e-01 3.376653e-01 3.378469e-01 3.500845e-01 3.578581e-01 3.750905e-01 5.807406e-01
<GCONST> 4.427890e+01
<STATE> 4
<MEAN> 39
 1.372045e-01 -2.236088e-01 -4.938731e-01 -3.354029e-01 7.805149e-02 -3.402819e-01 -9.162927e-02 -2.615367e-01 1.334285e-01 -1.010265e-01 1.846388e-02 -1.299692e-01 6.536288e-01 2.709923e-01 1.255841e-01 -2.347244e-01 -1.920540e-01 -1.084963e-01 -9.179237e-02 -4.155916e-02 -2.971273e-02 -3.285507e-02 -6.874706e-02 -5.543558e-02 -7.906480e-02 1.527669e-01 -5.339995e-02 3.159854e-02 1.520887e-01 6.603733e-02 1.988241e-03 7.768345e-02 2.009753e-02 6.309273e-02 -1.600568e-02 2.068087e-02 -4.004498e-03 2.907092e-02 -2.071729e-01
<VARIANCE> 39
 7.543439e-01 8.626090e-01 7.182205e-01 6.404527e-01 6.040269e-01 5.105268e-01 5.536212e-01 4.653361e-01 5.446175e-01 5.645493e-01 5.940720e-01 5.911931e-01 4.160085e-01 4.820300e-01 5.007388e-01 4.741924e-01 3.993821e-01 3.924895e-01 3.606016e-01 3.724942e-01 3.435402e-01 3.624719e-01 3.790145e-01 3.997777e-01 4.176059e-01 4.412788e-01 4.194862e-01 3.691122e-01 3.557201e-01 3.094674e-01 3.058343e-01 2.806881e-01 2.854539e-01 2.693191e-01 2.841970e-01 2.957093e-01 3.087466e-01 3.269118e-01 3.139473e-01
<GCONST> 3.812473e+01
<TRANSP> 5
 0.000000e+00 1.000000e+00 0.000000e+00 0.000000e+00 0.000000e+00
 0.000000e+00 7.353905e-01 2.646095e-01 0.000000e+00 0.000000e+00
 0.000000e+00 0.000000e+00 7.156919e-01 2.843080e-01 0.000000e+00
 0.000000e+00 0.000000e+00 0.000000e+00 7.413512e-01 2.586488e-01
 0.000000e+00 0.000000e+00 0.000000e+00 0.000000e+00 0.000000e+00
<ENDHMM>
~h "P3"
<BEGINHMM>
<NUMSTATES> 5
<STATE> 2
<MEAN> 39
 5.112504e-01 1.314686e-01 1.898712e-01 -1.741850e-01 -4.163689e-01 -5.403228e-01 -2.671787e-01 -2.873239e-02 -2.793933e-01 7.000019e-02 -1.666353e-01 9.997602e-03 -7.964736e-02 2.013617e-01 1.129388e-02 -1.472840e-01 -2.756703e-01 -9.015197e-02 -2.517459e-01 -6.990265e-02 -8.912610e-02 -8.415725e-02 -9.171449e-02 -3.446817e-02 -4.186081e-02 3.373509e-01 -1.161750e-01 -1.729707e-01 -2.311134e-01 -2.230431e-04 1.493143e-01 1.717258e-01 1.060836e-01 -3.962302e-02 6.562437e-02 -6.623728e-02 4.760597e-02 -4.281544e-02 2.968657e-01
<VARIANCE> 39
 3.685742e-01 4.773750e-01 6.238990e-01 4.522939e-01 5.728038e-01 6.175489e-01 5.770372e-01 5.925905e-01 5.647630e-01 5.932525e-01 6.427020e-01 6.457065e-01 4.025596e-01 6.383397e-01 6.627907e-01 7.516564e-01 5.901539e-01 6.304937e-01 7.357503e-01 5.540655e-01 5.277303e-01 5.004918e-01 4.987883e-01 5.215408e-01 5.080850e-01 8.137789e-01 4.079806e-01 5.185434e-01 5.402087e-01 3.878871e-01 4.249107e-01 5.055043e-01 3.986706e-01 3.858463e-01 3.820174e-01 3.848446e-01 3.911398e-01 3.833370e-01 5.561435e-01
<GCONST> 4.615902e+01
<STATE> 3
<MEAN> 39
 5.674227e-01 7.826505e-02 -3.714741e-02 -3.251112e-01 -3.817602e-01 -6.085541e-01 -2.455957e-01 -1.170687e-01 -3.108592e-01 -4.817261e-02 -1.702863e-01 -5.506557e-02 1.595982e-01 -1.480152e-02 -1.370504e-01 -3.602161e-01 -1.538244e-01 1.107090e-01 2.676897e-02 7.993802e-02 -9.958860e-02 1.474654e-02 -1.376721e-01 3.949716e-02 -8.236326e-02 4.828522e-01 -1.717837e-01 -1.023597e-01 -1.054105e-01 1.152026e-01 1.376625e-01 2.111068e-01 7.900979e-02 -8.983412e-03 7.466460e-02 -1.011275e-02 5.493457e-02 -1.094760e-02 5.455106e-02
<VARIANCE> 39
 3.879732e-01 6.013910e-01 7.928801e-01 4.936457e-01 6.338390e-01 6.148638e-01 6.211200e-01 6.309724e-01 5.921146e-01 6.363249e-01 6.885424e-01 7.004558e-01 4.409232e-01 5.498247e-01 7.862043e-01 7.567256e-01 5.657283e-01 5.653661e-01 6.753507e-01 5.063612e-01 4.832140e-01 4.819294e-01 4.874366e-01 5.073910e-01 4.952653e-01 7.469906e-01 4.047680e-01 5.854777e-01 6.203282e-01 3.883482e-01 4.474392e-01 4.932309e-01 4.002530e-01 3.876617e-01 3.806429e-01 3.823086e-01 3.945971e-01 3.813745e-01 5.708392e-01
<GCONST> 4.708220e+01
<STATE> 4
<MEAN> 39
 4.780625e-01 -3.429587e-02 -3.464274e-01 -3.582453e-01 -2.308733e-01 -4.914257e-01 -1.395651e-01 -2.008627e-01 -2.654901e-01 -1.735885e-01 -1.182760e-01 -1.406904e-01 4.269654e-01 -1.743803e-01 -1.770990e-01 -3.234188e-01 -5.740182e-04 1.949977e-01 2.083750e-01 1.165764e-01 -8.789717e-02 8.692097e-02 -9.899924e-02 8.447963e-02 -6.810701e-02 3.871171e-01 -7.744679e-02 2.275509e-02 1.245165e-01 8.417216e-02 1.913602e-02 7.585314e-02 -1.760522e-02 2.279366e-02 3.616719e-02 4.766200e-02 2.734003e-03 2.993816e-02 -1.796256e-01
<VARIANCE> 39
 4.657685e-01 8.059094e-01 8.192852e-01 5.724928e-01 6.617128e-01 6.151070e-01 6.374541e-01 6.128536e-01 5.988705e-01 6.340265e-01 6.733095e-01 6.867428e-01 4.537523e-01 4.579404e-01 8.011108e-01 7.107256e-01 5.192120e-01 5.120934e-01 5.527761e-01 4.742895e-01 4.675674e-01 4.611110e-01 4.726722e-01 4.871874e-01 4.776636e-01 6.970003e-01 3.701487e-01 5.843115e-01 5.653096e-01 3.726142e-01 4.097418e-01 4.347656e-01 3.664505e-01 3.578500e-01 3.561607e-01 3.553551e-01 3.670970e-01 3.534262e-01 5.156527e-01
<GCONST> 4.584427e+01
<TRANSP> 5
 0.000000e+00 1.000000e+00 0.000000e+00 0.000000e+00 0.000000e+00
 0.000000e+00 6.554339e-01 3.445661e-01 0.000000e+00 0.000000e+00
 0.000000e+00 0.000000e+00 6.783805e-01 3.216195e-01 0.000000e+00
 0.000000e+00 0.000000e+00 0.000000e+00 6.997910e-01 3.002090e-01
 0.000000e+00 0.000000e+00 0.000000e+00 0.000000e+00 0.000000e+00
<ENDHMM>
~h "P4"
<BEGINHMM>
<NUMSTATES> 5
<STATE> 2
<MEAN> 39
 -4.878707e-01 -2.466625e-01 3.751084e-01 2.588346e-01 2.756919e-01 2.484301e-01 2.422924e-01 1.502438e-01 7.767889e-02 1.089740e-01 1.281111e-01 9.932728e-02 -2.462180e-01 2.465546e-01 -5.367224e-01 -3.457038e-01 -2.808403e-02 2.921410e-02 -2.811132e-02 2.367193e-02 -1.017185e-01 -3.545698e-02 -3.303220e-02 1.107099e-02 3.977051e-02 5.785523e-01 2.885028e-01 -1.189239e-01 -2.520271e-01 -9.978898e-02 -7.584347e-02 -1.167201e-01 -8.795571e-02 -9.077224e-02 -6.132882e-02 -4.087789e-02 -5.211054e-02 -3.131840e-02 3.531340e-01
<VARIANCE> 39
 7.837589e-01 5.519918e-01 7.291466e-01 4.505507e-01 4.386069e-01 4.411235e-01 4.470269e-01 4.779856e-01 4.489734e-01 4.403639e-01 4.167130e-01 4.060214e-01 7.240756e-01 1.060878e+00 6.730847e-01 8.966327e-01 5.294301e-01 4.539722e-01 4.759008e-01 4.726615e-01 5.107815e-01 4.516161e-01 4.313684e-01 4.238369e-01 4.142476e-01 1.035196e+00 8.690637e-01 6.080418e-01 7.254897e-01 4.071545e-01 3.689622e-01 3.753442e-01 3.692594e-01 4.114538e-01 3.711486e-01 3.612743e-01 3.592181e-01 3.566867e-01 9.081821e-01
<GCONST> 4.556473e+01
<STATE> 3
<MEAN> 39
 -1.601187e-01 -6.327406e-01 -2.042264e-02 2.014735e-01 2.651539e-01 1.516183e-01 1.812446e-01 -6.283995e-03 1.685560e-03 4.096906e-02 9.920654e-02 9.302186e-02 2.619068e-01 3.616057e-01 -4.578783e-01 -4.113229e-01 -8.173461e-02 -3.209025e-02 -1.026709e-01 -7.102674e-02 -1.611464e-01 -8.096655e-02 -5.326316e-02 -3.408879e-02 -1.897535e-02 6.705165e-01 2.001238e-02 1.402785e-01 3.452140e-02 -3.494596e-02 -4.655945e-02 -2.812547e-02 -5.447226e-02 -1.994023e-02 -9.240044e-03 -4.117563e-03 -2.088708e-02 -3.519636e-02 -5.991540e-02
<VARIANCE> 39
 8.073609e-01 5.868172e-01 9.240355e-01 5.010486e-01 4.583868e-01 4.923174e-01 5.174625e-01 5.660849e-01 5.202640e-01 4.944432e-01 4.697658e-01 4.585709e-01 9.128274e-01 8.179237e-01 6.671352e-01 8.061917e-01 5.039050e-01 4.167592e-01 4.142937e-01 4.456163e-01 4.876398e-01 4.459799e-01 4.312793e-01 4.247063e-01 4.181198e-01 9.403421e-01 7.571741e-01 5.452969e-01 6.958862e-01 3.674966e-01 3.248450e-01 3.345538e-01 3.342290e-01 3.910860e-01 3.518700e-01 3.415485e-01 3.421352e-01 3.399799e-01 9.468549e-01
<GCONST> 4.540460e+01
<STATE> 4
<MEAN> 39
 1.081705e-01 -8.243250e-01 -2.916469e-01 1.293269e-01 2.114556e-01 5.283309e-02 6.875616e-02 -1.465124e-01 -7.393267e-02 -3.997392e-03 6.107927e-02 4.706921e-02 6.192730e-01 2.773014e-01 -1.713826e-01 -2.292588e-01 -1.162790e-01 -1.010986e-01 -9.062405e-02 -1.021936e-01 -1.370718e-01 -6.085574e-02 -3.261591e-02 -4.250072e-02 -4.684447e-02 3.806771e-01 -5.537200e-02 2.494883e-01 1.360258e-01 -3.424511e-02 -5.484154e-02 -3.962520e-03 -2.465538e-02 2.444920e-02 2.522309e-02 4.970040e-03 -8.617057e-03 -1.094631e-02 -2.678162e-01
<VARIANCE> 39
 7.086702e-01 5.424755e-01 8.836474e-01 6.026575e-01 5.257984e-01 5.452542e-01 6.043462e-01 5.943605e-01 5.879249e-01 5.498463e-01 5.325463e-01 5.162772e-01 7.667785e-01 5.652142e-01 6.190488e-01 6.583657e-01 4.523564e-01 3.707798e-01 3.638312e-01 3.996713e-01 4.395296e-01 4.152471e-01 4.061233e-01 4.009262e-01 3.942629e-01 8.244295e-01 5.095978e-01 4.155281e-01 5.179041e-01 3.230903e-01 2.880598e-01 2.953145e-01 3.052897e-01 3.421547e-01 3.240189e-01 3.126165e-01 3.149846e-01 3.131612e-01 6.799461e-01
<GCONST> 4.225519e+01
<TRANSP> 5
 0.000000e+00 1.000000e+00 0.000000e+00 0.000000e+00 0.000000e+00
 0.000000e+00 7.203981e-01 2.796019e-01 0.000000e+00 0.000000e+00
 0.000000e+00 0.000000e+00 7.039704e-01 2.960296e-01 0.000000e+00
 0.000000e+00 0.000000e+00 0.000000e+00 6.885971e-01 3.114029e-01
 0.000000e+00 0.000000e+00 0.000000e+00 0.000000e+00 0.000000e+00
<ENDHMM>
~h "P5"
<BEGINHMM>
<NUMSTATES> 5
<STATE> 2
<MEAN> 39
 -1.274992e-01 1.872744e-01 3.541026e-01 1.563527e-01 -1.133082e-02 2.699241e-01 2.667151e-02 1.300680e-01 9.255231e-03 8.565954e-02 2.233960e-02 1.092818e-01 -5.087204e-01 -1.579583e-01 -5.214339e-01 -1.772603e-01 -2.061124e-01 5.689447e-02 1.785637e-01 1.952560e-01 -7.998852e-02 1.379291e-01 -3.730426e-02 8.191391e-02 4.335012e-02 5.489253e-01 1.828361e-01 -2.613214e-01 -2.671131e-01 -2.394436e-01 -1.205060e-01 -1.567298e-01 2.513363e-02 -1.336644e-01 1.062803e-02 -6.240112e-02 -1.988762e-02 -3.759910e-02 5.851752e-01
<VARIANCE> 39
 5.037303e-01 5.831922e-01 4.460769e-01 6.316128e-01 5.256376e-01 4.999208e-01 4.908013e-01 4.852382e-01 4.720694e-01 4.801632e-01 4.487155e-01 4.053335e-01 8.907534e-01 6.013973e-01 8.356244e-01 5.939570e-01 8.133249e-01 5.722391e-01 5.875810e-01 5.400947e-01 5.465059e-01 4.951245e-01 4.987676e-01 4.665592e-01 4.200598e-01 1.372878e+00 5.280103e-01 7.535484e-01 5.015193e-01 7.149355e-01 4.800854e-01 4.619223e-01 4.631887e-01 4.559560e-01 4.432625e-01 4.304046e-01 4.030553e-01 3.668815e-01 1.212028e+00
<GCONST> 4.828856e+01
<STATE> 3
<MEAN> 39
 -1.238946e-01 -2.614043e-01 7.686956e-02 -1.250031e-01 -5.772157e-02 3.165962e-01 1.848346e-01 -6.269910e-02 1.075526e-01 7.348779e-04 6.169405e-02 1.099315e-01 1.094249e-01 7.433926e-02 -5.641567e-01 -3.460818e-01 -2.654939e-01 -8.033973e-02 -3.531117e-02 1.542484e-01 -2.183028e-01 4.554339e-02 -7.900301e-02 1.778176e-02 -2.346098e-02 8.346431e-01 1.384863e-01 1.199433e-01 -3.616583e-02 7.610121e-02 -4.888137e-02 -1.575605e-01 -6.999020e-02 -1.445375e-02 -8.556871e-02 -4.053757e-03 -4.634024e-02 -4.448128e-02 -2.792155e-02
<VARIANCE> 39
 5.077645e-01 7.179937e-01 5.673183e-01 7.398871e-01 5.567464e-01 5.487283e-01 5.770671e-01 5.858982e-01 5.219851e-01 5.593972e-01 5.245689e-01 4.530272e-01 1.188141e+00 6.028425e-01 8.635101e-01 5.861534e-01 8.022436e-01 5.615708e-01 6.147726e-01 5.951644e-01 5.881816e-01 5.398980e-01 5.355707e-01 5.035809e-01 4.489837e-01 1.201122e+00 5.079735e-01 6.712105e-01 5.116226e-01 7.193586e-01 4.654576e-01 4.475416e-01 4.557678e-01 4.721431e-01 4.250508e-01 4.345269e-01 4.093172e-01 3.687066e-01 1.296562e+00
<GCONST> 5.046856e+01
<STATE> 4
<MEAN> 39
 1.227721e-02 -5.807511e-01 -1.925573e-01 -2.580542e-01 -1.576424e-01 2.085311e-01 2.750979e-01 -2.668810e-01 6.814699e-02 -5.755022e-02 4.713064e-02 5.405074e-02 6.197000e-01 1.466282e-01 -2.525558e-01 -2.328647e-01 -3.315768e-02 -7.134394e-02 -1.604429e-01 4.637885e-02 -1.115708e-01 -5.758720e-02 -3.558467e-02 -2.311373e-02 -5.943626e-02 4.364541e-01 3.247391e-02 2.773613e-01 9.865037e-02 1.414619e-01 2.771498e-02 -5.972282e-02 -9.573951e-02 1.084404e-01 -4.398800e-02 2.355164e-02 -2.544766e-02 -1.224357e-02 -3.820685e-01
<VARIANCE> 39
 5.628572e-01 7.813796e-01 6.398219e-01 7.069852e-01 5.964173e-01 6.622678e-01 6.725189e-01 6.496375e-01 6.171760e-01 6.075691e-01 6.024730e-01 5.325239e-01 9.344572e-01 4.740315e-01 7.403059e-01 5.249767e-01 6.352936e-01 4.711829e-01 5.058544e-01 5.177197e-01 5.074064e-01 4.740437e-01 4.761622e-01 4.565585e-01 4.248348e-01 1.012477e+00 4.126841e-01 4.835406e-01 4.027968e-01 4.998595e-01 3.893968e-01 4.068295e-01 4.019240e-01 3.972611e-01 3.718899e-01 3.750509e-01 3.662350e-01 3.434151e-01 7.756262e-01
<GCONST> 4.689896e+01
<TRANSP> 5
 0.000000e+00 1.000000e+00 0.000000e+00 0.000000e+00 0.000000e+00
 0.000000e+00 6.679193e-01 3.320807e-01 0.000000e+00 0.000000e+00
 0.000000e+00 0.000000e+00 6.631867e-01 3.368132e-01 0.000000e+00
 0.000000e+00 0.000000e+00 0.000000e+00 6.603108e-01 3.396893e-01
 0.000000e+00 0.000000e+00 0.000000e+00 0.000000e+00 0.000000e+00
<ENDHMM>
~h "P6"
<BEGINHMM>
<NUMSTATES> 5
<STATE> 2
<MEAN> 39
 -3.881531e-01 -6.877948e-02 2.902519e-01 2.516976e-01 1.795199e-01 1.884597e-01 8.138002e-02 7.814603e-02 1.198525e-01 7.253689e-02 7.458757e-02 6.890853e-02 -2.771277e-01 -9.357725e-02 -3.778844e-01 -9.639088e-02 -1.553375e-03 6.656847e-02 -7.601294e-02 1.069633e-02 -1.315536e-01 8.106068e-02 -4.516215e-02 3.139439e-02 -2.847999e-04 4.469240e-01 1.982767e-01 2.568165e-03 -1.049581e-01 -5.154871e-02 -8.914949e-02 -1.158175e-01 -4.705496e-02 -6.613859e-02 -5.347855e-02 -2.338774e-02 -3.581620e-02 -1.203150e-02 1.430617e-01
<VARIANCE> 39
 5.252546e-01 5.067154e-01 4.356589e-01 3.986427e-01 4.305421e-01 4.257606e-01 4.343683e-01 4.575607e-01 4.232163e-01 4.141694e-01 4.092004e-01 3.879255e-01 5.379879e-01 6.227023e-01 6.262273e-01 4.963887e-01 4.843129e-01 4.507710e-01 4.751565e-01 4.362546e-01 4.824322e-01 4.401502e-01 4.174027e-01 4.049601e-01 3.863478e-01 7.215100e-01 5.198542e-01 5.148864e-01 4.232893e-01 4.181556e-01 3.726559e-01 3.884309e-01 3.695512e-01 4.165993e-01 3.927971e-01 3.659470e-01 3.578151e-01 3.459361e-01 6.772246e-01
<GCONST> 4.047447e+01
<STATE> 3
<MEAN> 39
 -3.561096e-01 -2.822733e-01 1.761402e-01 2.358867e-01 1.794856e-01 7.225941e-02 6.357161e-02 -5.457205e-02 1.552594e-01 2.569884e-02 7.574252e-02 5.548919e-02 2.502010e-02 1.165479e-01 -2.991161e-01 -1.884403e-01 -3.162409e-02 -1.920447e-02 -1.582307e-01 -3.681575e-02 -1.587836e-01 4.577677e-03 -5.517018e-02 -6.668024e-03 -1.585088e-02 4.670799e-01 1.879432e-01 9.676074e-02 -8.241212e-02 -3.380202e-02 -5.285853e-02 -4.151506e-02 -3.915525e-02 1.552627e-02 -6.795550e-02 -1.181552e-03 -2.664997e-02 -8.944850e-03 -2.956416e-02
<VARIANCE> 39
 6.015145e-01 5.944290e-01 5.461765e-01 4.533246e-01 4.518922e-01 4.682846e-01 4.735118e-01 5.007338e-01 4.474163e-01 4.445195e-01 4.396823e-01 4.215097e-01 5.825659e-01 6.211253e-01 6.254495e-01 5.097440e-01 4.593606e-01 4.253745e-01 4.262318e-01 4.115951e-01 4.618048e-01 4.296995e-01 4.046541e-01 3.956937e-01 3.886683e-01 5.982718e-01 5.331236e-01 4.458537e-01 4.246993e-01 3.952104e-01 3.519177e-01 3.660437e-01 3.458151e-01 3.930377e-01 3.708041e-01 3.510260e-01 3.436335e-01 3.419598e-01 5.645184e-01
<GCONST> 4.050063e+01
<STATE> 4
<MEAN> 39
 -1.992635e-01 -4.179389e-01 7.807763e-03 1.899160e-01 1.356316e-01 -6.242955e-02 1.526954e-02 -1.679045e-01 1.337626e-01 -2.025951e-02 5.510309e-02 2.635298e-02 2.902879e-01 2.624434e-01 -1.823928e-01 -2.549086e-01 -8.345347e-02 -5.548790e-02 -1.608400e-01 -6.508166e-02 -1.087250e-01 -5.142594e-02 -4.926601e-02 -2.535022e-02 -3.113242e-02 3.875679e-01 1.104657e-01 1.084018e-01 -5.544750e-02 -6.652684e-02 -1.712710e-02 1.916223e-02 -2.291255e-02 5.922550e-02 -3.614221e-02 6.202097e-03 -1.074563e-02 -8.388029e-03 -8.038553e-02
<VARIANCE> 39
 6.680251e-01 7.057157e-01 6.562420e-01 5.370424e-01 4.973701e-01 5.030236e-01 5.198268e-01 5.317307e-01 4.872505e-01 4.830112e-01 4.782565e-01 4.660423e-01 5.503531e-01 5.766896e-01 6.120192e-01 5.081140e-01 4.497679e-01 4.125252e-01 4.073855e-01 3.991396e-01 4.351991e-01 4.156871e-01 3.974271e-01 3.938170e-01 3.939289e-01 5.260047e-01 5.194792e-01 4.044643e-01 4.166196e-01 3.703989e-01 3.279491e-01 3.382828e-01 3.241121e-01 3.563468e-01 3.460479e-01 3.347792e-01 3.285424e-01 3.343041e-01 4.610856e-01
<GCONST> 4.038352e+01
<TRANSP> 5
 0.000000e+00 1.000000e+00 0.000000e+00 0.000000e+00 0.000000e+00
 0.000000e+00 6.645679e-01 3.354321e-01 0.000000e+00 0.000000e+00
 0.000000e+00 0.000000e+00 6.421944e-01 3.578056e-01 0.000000e+00
 0.000000e+00 0.000000e+00 0.000000e+00 6.361579e-01 3.638421e-01
 0.000000e+00 0.000000e+00 0.000000e+00 0.000000e+00 0.000000e+00
<ENDHMM>
~h "sil"
<BEGINHMM>
<NUMSTATES> 5
<STATE> 2
<MEAN> 39
 -1.663934e-01 1.677301e-01 2.358132e-01 2.953348e-01 1.360791e-01 2.206164e-01 1.257005e-02 1.357119e-01 -2.074146e-02 8.223011e-02 -1.807908e-02 4.194404e-02 -4.564990e-01 -7.611095e-02 1.879094e-02 4.180036e-02 6.016664e-02 4.195704e-02 6.864171e-02 4.654280e-02 5.034616e-02 1.371745e-02 1.831829e-02 9.774736e-03 8.623446e-04 -8.385243e-02 4.390211e-02 2.295744e-03 -1.551015e-02 -2.946213e-02 -1.871913e-02 -2.557853e-02 -1.441008e-02 -1.751329e-02 -6.400535e-03 -8.750954e-03 -2.566900e-03 -1.910582e-03 5.353317e-02
<VARIANCE> 39
 2.648850e-01 2.711449e-01 2.880527e-01 2.624511e-01 3.403526e-01 3.161919e-01 3.621685e-01 3.523965e-01 3.713328e-01 3.656786e-01 3.670518e-01 3.653156e-01 1.125449e-01 2.219433e-01 2.367285e-01 2.796713e-01 2.727740e-01 3.125234e-01 3.225400e-01 3.352370e-01 3.424102e-01 3.439381e-01 3.428107e-01 3.411388e-01 3.428239e-01 1.469321e-01 2.109755e-01 2.291089e-01 2.762209e-01 2.676377e-01 3.029566e-01 3.144259e-01 3.274879e-01 3.354072e-01 3.385584e-01 3.395328e-01 3.389986e-01 3.407403e-01 1.363446e-01
<GCONST> 2.329452e+01
<STATE> 3
<MEAN> 39
 -3.149645e-01 1.776552e-01 2.881886e-01 3.355457e-01 1.810858e-01 3.017736e-01 1.054823e-01 1.970169e-01 1.550224e-03 1.074631e-01 1.845039e-02 4.809893e-02 -5.219930e-01 -5.508554e-03 -3.456821e-03 1.405718e-02 8.831359e-03 2.255103e-02 1.540205e-02 1.722970e-02 7.336095e-03 5.898340e-03 -3.240632e-03 -1.403088e-03 -7.574710e-03 5.548200e-02 9.063864e-03 -7.487486e-03 -1.121731e-02 -1.824888e-02 -9.507665e-03 -2.271651e-02 -1.117389e-02 -1.295237e-02 1.051905e-03 -5.786174e-03 1.420547e-03 7.435018e-04 3.067396e-02
<VARIANCE> 39
 2.127571e-01 2.590452e-01 2.544683e-01 2.332442e-01 3.101366e-01 2.775710e-01 3.337217e-01 3.196738e-01 3.503737e-01 3.454323e-01 3.471026e-01 3.448232e-01 6.849827e-02 2.514003e-01 2.786345e-01 3.188094e-01 3.154792e-01 3.553681e-01 3.610503e-01 3.768831e-01 3.811862e-01 3.881371e-01 3.872460e-01 3.844279e-01 3.843668e-01 1.847154e-01 2.606637e-01 2.851490e-01 3.298005e-01 3.266435e-01 3.631016e-01 3.735135e-01 3.868991e-01 3.912787e-01 3.974835e-01 3.975103e-01 3.954168e-01 3.951913e-01 1.877479e-01
<GCONST> 2.581635e+01
<STATE> 4
<MEAN> 39
 -2.455945e-01 8.056115e-02 1.801279e-01 2.139004e-01 1.431718e-01 2.115613e-01 1.074910e-01 1.465333e-01 3.240981e-02 7.740110e-02 3.386797e-02 2.735751e-02 -3.492720e-01 5.428220e-02 -4.064344e-02 -6.640189e-02 -7.815344e-02 -3.413528e-02 -6.220137e-02 -1.418112e-02 -3.069767e-02 1.490598e-02 -1.022169e-02 8.963375e-03 -4.094006e-03 1.910162e-01 2.316577e-02 -1.467938e-02 -3.287135e-02 -4.438447e-02 -2.579072e-02 -3.170909e-02 -9.222544e-03 -1.737138e-02 4.686986e-03 -4.317909e-03 5.253616e-03 3.286930e-03 6.331907e-02
<VARIANCE> 39
 3.797098e-01 4.052684e-01 3.737887e-01 3.722557e-01 3.769455e-01 3.492471e-01 3.650653e-01 3.565910e-01 3.664812e-01 3.670061e-01 3.627171e-01 3.595628e-01 2.856525e-01 3.818328e-01 3.767274e-01 3.690262e-01 3.743846e-01 3.661939e-01 3.629782e-01 3.588803e-01 3.562477e-01 3.584129e-01 3.579071e-01 3.556615e-01 3.525656e-01 3.570412e-01 3.757550e-01 3.794900e-01 3.746443e-01 3.827615e-01 3.658335e-01 3.670721e-01 3.591457e-01 3.582288e-01 3.584570e-01 3.600861e-01 3.580830e-01 3.559654e-01 3.984168e-01
<GCONST> 3.234200e+01
<TRANSP> 5
 0.000000e+00 1.000000e+00 0.000000e+00 0.000000e+00 0.000000e+00
 0.000000e+00 9.356799e-01 6.432012e-02 0.000000e+00 0.000000e+00
 0.000000e+00 0.000000e+00 8.903398e-01 1.096603e-01 0.000000e+00
 0.000000e+00 0.000000e+00 0.000000e+00 9.259503e-01 7.404964e-02
 0.000000e+00 0.000000e+00 0.000000e+00 0.000000e+00 0.000000e+00
<ENDHMM>
