\data\
ngram 1=5
ngram 2=5
ngram 3=0

\1-grams:
-0.69897	</s>
-99	<s>	-99
-0.69897	khiau2	-99
-0.39794	sui2	-7.083871
-0.69897	tsiang5	-99

\2-grams:
0	<s> sui2
0	khiau2 tsiang5
-0.30103	sui2 khiau2
-0.30103	sui2 sui2
0	tsiang5 </s>

\3-grams:

\end\