\data\
ngram 1=6
ngram 2=4

\1-grams:
-1	<unk>	0
0	<s>	-0.30103
-0.6478175	</s>	0
-0.6478175	我｜gua2	-0.30103
-0.6478175	愛｜ai3	-0.30103
-0.6478175	阿-媠｜a1-sui2	-0.30103

\2-grams:
-0.2128939	阿-媠｜a1-sui2 </s>
-0.2128939	<s> 我｜gua2
-0.2128939	我｜gua2 愛｜ai3
-0.2128939	愛｜ai3 阿-媠｜a1-sui2

\end\
