~o <VecSize> 39 <MFCC_E_D_A_Z> <DiagC> <StreamInfo> 1 39
<BeginHMM>
<NUMSTATES> 5
<STATE> 2
<NUMMIXES> 1 
<SWeights> 1 1 
<STREAM> 1
<MIXTURE> 1 1.000000e+000
<MEAN> 39
0.0 0.0 0.0 0.0 0.0 0.0 0.0 0.0 0.0 0.0 0.0 0.0 0.0 0.0 0.0 0.0 0.0 0.0 0.0 0.0 0.0 0.0 0.0 0.0 0.0 0.0 0.0 0.0 0.0 0.0 0.0 0.0 0.0 0.0 0.0 0.0 0.0 0.0 0.0
<VARIANCE> 39
1.0 1.0 1.0 1.0 1.0 1.0 1.0 1.0 1.0 1.0 1.0 1.0 1.0 1.0 1.0 1.0 1.0 1.0 1.0 1.0 1.0 1.0 1.0 1.0 1.0 1.0 1.0 1.0 1.0 1.0 1.0 1.0 1.0 1.0 1.0 1.0 1.0 1.0 1.0

<STATE> 3
<NUMMIXES> 1 
<SWeights> 1 1 
<STREAM> 1
<MIXTURE> 1 1.000000e+000
<MEAN> 39
0.0 0.0 0.0 0.0 0.0 0.0 0.0 0.0 0.0 0.0 0.0 0.0 0.0 0.0 0.0 0.0 0.0 0.0 0.0 0.0 0.0 0.0 0.0 0.0 0.0 0.0 0.0 0.0 0.0 0.0 0.0 0.0 0.0 0.0 0.0 0.0 0.0 0.0 0.0
<VARIANCE> 39
1.0 1.0 1.0 1.0 1.0 1.0 1.0 1.0 1.0 1.0 1.0 1.0 1.0 1.0 1.0 1.0 1.0 1.0 1.0 1.0 1.0 1.0 1.0 1.0 1.0 1.0 1.0 1.0 1.0 1.0 1.0 1.0 1.0 1.0 1.0 1.0 1.0 1.0 1.0

<STATE> 4
<NUMMIXES> 1 
<SWeights> 1 1 
<STREAM> 1
<MIXTURE> 1 1.000000e+000
<MEAN> 39
0.0 0.0 0.0 0.0 0.0 0.0 0.0 0.0 0.0 0.0 0.0 0.0 0.0 0.0 0.0 0.0 0.0 0.0 0.0 0.0 0.0 0.0 0.0 0.0 0.0 0.0 0.0 0.0 0.0 0.0 0.0 0.0 0.0 0.0 0.0 0.0 0.0 0.0 0.0
<VARIANCE> 39
1.0 1.0 1.0 1.0 1.0 1.0 1.0 1.0 1.0 1.0 1.0 1.0 1.0 1.0 1.0 1.0 1.0 1.0 1.0 1.0 1.0 1.0 1.0 1.0 1.0 1.0 1.0 1.0 1.0 1.0 1.0 1.0 1.0 1.0 1.0 1.0 1.0 1.0 1.0

<TRANSP> 5
0.000000e+000 1.000000e+000 0.000000e+000 0.000000e+000 0.000000e+000 
0.000000e+000 6.000000e-001 4.000000e-001 0.000000e+000 0.000000e+000 
0.000000e+000 0.000000e+000 6.000000e-001 4.000000e-001 0.000000e+000 
0.000000e+000 0.000000e+000 0.000000e+000 6.000000e-001 4.000000e-001 
0.000000e+000 0.000000e+000 0.000000e+000 0.000000e+000 0.000000e+000 
<ENDHMM>
